{"nr_inputs":9,"nr_outputs":9,"nr_layers":3,"layers":[{"nr_nodes":9,"activation_function":{"type":"sigmoid","alpha":1},"input_weights":[[-0.8683909556579942,-0.15834518795627556,0.31625041199653,0.7156792386483963,1.468854073919433,-1.949407527548841,-0.49267054848302905,0.8809753880912581,-2.0580315878739226],[-0.7450296223517552,-1.6071299196060025,0.6053693988876347,1.549222251188472,-0.8626800416156144,0.2326170627048101,1.121419220525816,-0.4327749259743197,0.1585800585948987],[0.25740008421996863,-0.38246537115830426,0.4704188297190201,0.46760824505365667,-0.30109803441093264,0.8732101485626049,0.43044233629819917,0.4265464873162651,-0.04833277332116881],[-1.030793106686536,1.5348026991187742,-0.18769453746692477,-1.2159400547051504,-0.4124341986336607,1.754336448237609,0.7436589747055498,-0.7092419791374653,-0.09055904851407447],[0.7649275904025642,0.7863160918117086,1.7643089432928667,-0.09517009850742479,-1.951528080330532,-1.3706268028901054,0.5756801376387842,-0.530940035235727,0.41779923768158167],[1.1618026659195009,0.5248795111885756,0.20194318073005846,2.4865930600521695,1.1009000841469954,-0.6458141856520714,-0.875942670308394,-0.5979041678723851,-0.7531019491059657],[0.2066595566116313,-1.0579937825042012,-1.511662006014477,0.38966466063356486,0.183442875418906,1.54420819092457,1.3601221559220351,1.6533865203442693,-1.03727296266784],[0.4357284984189852,0.28330051194796235,0.923168481994026,-0.35812843018130613,0.7723403911560793,-0.383991235483213,-1.2999638724937048,-1.691241169710497,-0.022491574525882053],[-0.15571190616123248,-0.07592306285359268,-0.713846707020529,-0.8418827203730672,-1.1595523468332845,-0.24527148942277313,-0.6551694609459848,0.11352218765252099,1.2270591661251007]]},{"nr_nodes":9,"activation_function":{"type":"sigmoid","alpha":1},"input_weights":[[1.1323474619822271,-0.8436148482688071,0.6276510968143801,-0.7049552349037057,1.8357471848452214,0.5020682523356675,0.22061777307536048,0.110497096616439,0.30725775448234227],[0.8394610061156601,-2.087604032436111,-0.6233935772815861,1.8793858603423075,2.2115400138030266,-0.532450247745043,-1.7356111667771963,1.0202143367144691,-1.4566500254818722],[0.30242177342719495,0.49537834314094326,0.23751222539942457,-0.6509954449489095,2.1998443046559917,0.199808455574196,-2.8514972727262013,2.4597302604464772,-0.4667206694466298],[0.8178993459660506,0.3628114442840981,-0.5891783370139464,-2.20177589602013,-1.439091131815436,2.745175745510639,-1.4444895010013759,-0.8237261336801003,0.8705436920330863],[1.4820260897505937,-2.151202732526037,0.22688912385749915,-1.1318969120945643,-1.4291683273716562,0.062539703844749,-0.23845653699345717,1.1240876377780582,-1.8099161386391265],[-2.093557675495527,0.48337045627788644,-0.16687968783792115,2.1648746762471416,-0.8294136325032697,-1.602348999712131,2.9102008765079317,-0.8954568682623142,0.4115030601605004],[-1.0114703808928662,2.0822041045948567,0.26933954154066647,-0.0979560635598295,-0.8531240181211676,-1.0808375676873883,0.9179475443422703,-1.1564022526474118,-0.4427527090790721],[0.9269811761381548,0.5052443532952036,0.01603029371829356,0.3686956408995553,-0.9523788249305751,0.6360872267369219,1.2001652082852938,-2.9888688080540136,0.7606506531510581],[-2.5847144593662197,-0.19535865543319755,-0.07871113209252295,0.5973402857406127,1.2189603903620336,-1.082478264987054,0.2469555370202313,-0.8152843188569743,1.629766510311223]]}]}