{"nr_inputs":9,"nr_outputs":9,"nr_layers":3,"layers":[{"nr_nodes":9,"activation_function":{"type":"sigmoid","alpha":1},"input_weights":[[-0.7139940090061441,-0.5197029447692948,-0.48055679262499623,1.0814902475305443,0.7507230303012525,-0.8313398831398617,0.43620668889689546,1.1505628431478592,-1.3636228516476216],[-1.0448892586198428,-1.192026088303813,0.6520286076945428,0.3205038911824344,-0.156529022222335,0.10752612940733976,0.9704061036962687,-0.6219557960270193,-0.2574177524130212],[0.25740008421996863,-0.38246537115830426,0.4704188297190201,0.46760824505365667,-0.30109803441093264,0.8732101485626049,0.43044233629819917,0.4265464873162651,-0.04833277332116881],[-0.8853304170702115,1.481056624629619,0.5624534583477772,-0.3530327035812736,-0.4004541744085737,0.7613597371262272,-0.03420514584480904,-0.7896485641413595,-0.3689699737325374],[0.8387163824242937,0.9385581464115943,1.3458639209571004,-1.2309598431217,-1.1660010113122488,-0.44231336435784335,0.19128260025117447,-1.0317520946885466,1.0280126092122266],[0.6273473418810712,0.5701633209550754,0.0923405662827827,1.2827424834668426,0.6397073597393801,-0.46088158000595536,-0.74707297637965,-0.5827794250764591,-0.24668013290890942],[1.003683145573494,-0.8650668347893536,-1.2456731016414195,0.411691622172356,0.4144538704386373,0.9366362273632232,0.2939998022641906,1.2353875187564343,-0.8994613601781203],[-0.3776057616264981,0.4091380448778599,0.8178199436654774,-0.6969751835737557,0.845387213003769,-0.06301057693824824,-0.1724428431745511,-1.3733552298567522,-0.6599768382218755],[0.3787434178772658,-0.12120687262005898,-0.6042440925733216,0.36196785621240113,-0.6983596224256493,-0.43020409506890517,-0.7840391548747289,0.09839744485658933,0.7206373499281389]]},{"nr_nodes":9,"activation_function":{"type":"sigmoid","alpha":1},"input_weights":[[0.052582644960862075,-0.8245040117360531,0.596480382736793,-0.1669353122194935,1.165581917376563,0.2066389059220081,1.3051549852875823,-0.30510393613705816,0.8135183757387126],[-0.5066237398501974,-0.9586736833323932,-0.7017875172436061,2.1730329370881925,1.2555560003203787,-0.2559843057402259,-1.0456009719444286,-0.40415792780325277,-0.4363416386496616],[-1.2625295562171486,1.0965018134129731,0.3020480440087746,-0.06625638883244968,1.1789649443452688,0.12130995547208172,-1.453996192381966,1.2356258771296447,0.0158314583728141],[0.2809021563116169,0.0008282078179313207,-0.9429541192371352,-0.6484599542277732,-1.620244075563879,1.315044192090412,-0.6639394465680728,-0.5472480880841247,0.8042514896639937],[-0.3213852569136958,-0.495697795805583,0.25608473035465734,-0.6326666643043876,-1.8086035659300674,0.24170636051558073,0.29270743139127536,-0.22692079878284596,-0.8394644063704724],[-0.47433623854258666,0.4329928544698385,-0.347730966680308,1.2682152374555975,-0.5921547871333671,-1.3010097278136952,1.1111185628700575,0.13088852509872154,0.45777127912131554],[-0.4951344400004006,1.1299668230750126,0.3506075150577624,-0.47276310024024065,-0.8339626360795374,-1.2712538628454872,0.7626938587340492,-0.09959375079324673,-0.6331849077577338],[1.0742788187149932,0.02028801368651736,0.4555026803853755,0.03995999042369412,-0.7030800619005405,0.5253883241766264,1.4857824665897161,-2.1868262559654976,-0.4011349393564507],[-1.3915974348363007,-0.3596469634925898,0.13829552593620845,0.5216664718982232,0.9686105336529306,-1.4518750948579675,0.2916161850073234,-0.5243942343359591,-0.19383599864913703]]}]}