{
	"nr_inputs": 9,
	"nr_outputs": 9,
	"nr_layers": 3,
	"layers": [
		{
			"nr_nodes": 36,
			"activation_function": {
				"type": "sigmoid",
				"alpha": 1
			},
			"input_weights": [
				[
					-5.995212312930249,
					-1.162451601996576,
					0.4435685769871802,
					-2.513360713105515,
					2.307935820649902,
					6.473265392910727,
					-1.2171472099257272,
					0.8302055988005638,
					-0.2525780686624417,
					1.0280125588370832,
					3.260172785113196,
					-0.9456609102488558,
					-0.5170186683112769,
					-0.23944940194965303,
					0.7917983200802547,
					-0.6749202650200329,
					2.957777588110339,
					0.49667302624576337,
					-5.839997799257131,
					-1.3804520436046952,
					-0.41689198902001134,
					-2.6744464027291337,
					2.3309336103585143,
					6.151400235543396,
					-1.2902796869662412,
					0.9092831091543713,
					-0.28643021031348015,
					0.7715785524600512,
					3.5568015874772905,
					-0.8295728999012754,
					-0.5522260150067133,
					-0.5944387230637306,
					0.7146642184390338,
					-0.7749579753490597,
					2.8726935880304616,
					0.13693849205267575
				],
				[
					8.071346878223148,
					2.4651488014965333,
					3.0880007928661755,
					3.8536443032742818,
					-5.4843697234205075,
					4.132662045993563,
					4.265735815538265,
					-2.489196943101672,
					4.417997172684227,
					-6.581958292257057,
					3.105372621602385,
					3.4065918820608245,
					3.4247300810648245,
					3.9225988229837228,
					3.242744948152059,
					1.5641514205082638,
					2.609717705817226,
					-6.275378207561992,
					8.034503467948841,
					2.448644889115709,
					3.9496827026317036,
					3.8693092612222646,
					-5.510536902094741,
					4.395731059431799,
					4.272216144139362,
					-2.514853207407645,
					4.389441243273629,
					-6.029043767021738,
					2.78843284151693,
					3.429991636007487,
					3.2582299904304284,
					3.964275897943607,
					3.2710469810151874,
					1.5954836642872716,
					2.4965168575863417,
					-6.221825139106693
				],
				[
					-0.1299471821544862,
					5.014533812686771,
					3.1824214805996016,
					4.517821000340188,
					5.52852834903091,
					3.2294698112445928,
					4.259324299734837,
					3.900054922227473,
					4.670045202980434,
					4.55568602067343,
					2.7682960157649434,
					7.692508200465228,
					1.596786344855177,
					-7.745958305924482,
					4.242155272431232,
					3.5156115700460373,
					1.468610102018159,
					-0.198596577139784,
					-0.3785072792400723,
					5.066941217686928,
					2.9711487734499467,
					4.557637008337726,
					5.416331139719551,
					3.3591746206543127,
					4.2603757447501325,
					3.81725881149092,
					4.672632607026886,
					4.674851599725766,
					2.7212931695564877,
					7.684431496786856,
					1.5661474173542194,
					-7.718578716024975,
					4.317459620023617,
					3.5351488608714186,
					1.4878300663754314,
					0.26144684465647877
				],
				[
					-0.5724856295205071,
					2.5121634282821925,
					3.8900860606361136,
					1.4183473131346676,
					0.7297611473305863,
					-3.9453949300101434,
					3.926987507196403,
					6.86737823273374,
					2.8021253491395854,
					1.2229485456507994,
					4.58616611093987,
					4.103450484521835,
					2.9517313964881517,
					-1.1514823380620223,
					5.254246715088701,
					0.9204299288949431,
					1.9829497120081734,
					3.473254635519517,
					-0.5388334993905896,
					2.710959684429937,
					3.9582097156059963,
					1.5888750605965614,
					0.7891380054246275,
					-3.771932104619396,
					4.031282207390721,
					6.8235624098688215,
					2.822458069874089,
					1.4055123072712625,
					4.649089634846241,
					4.007234345119988,
					3.0488737646146986,
					-0.9514807739789269,
					5.227189398260412,
					1.2368718699535104,
					2.082738449045128,
					3.81508726170564
				],
				[
					5.225206961869037,
					-5.434693905130757,
					0.31043486834962175,
					-4.319255628606428,
					-0.14766262614703562,
					0.5099725509274988,
					-6.866754975753352,
					-3.1648674613326886,
					-5.418500550922226,
					-1.4224298643359754,
					-2.391192761067504,
					-1.824562285326849,
					-2.254527545826051,
					2.2448267686252583,
					-0.10133847829801565,
					-2.572838876842651,
					-5.107426502625133,
					-2.2470594393786616,
					5.231119358097134,
					-5.202261232625342,
					-1.0270660830722207,
					-4.165758720055191,
					-0.6782501991289639,
					-0.307979215034808,
					-6.758310213157105,
					-3.162487712574011,
					-5.439650841902652,
					-1.8238293174627493,
					-1.3036868940067607,
					-2.378138444129289,
					-1.3833119349915277,
					1.3912090783688078,
					-0.9778810309175643,
					-3.0538556424699066,
					-5.591310301172631,
					-0.7127043745043744
				],
				[
					2.2744565558257883,
					4.7536581890505785,
					5.86747746550778,
					5.496044968231146,
					1.6649676966997038,
					4.273327627483403,
					2.4056505503985353,
					3.397342266288442,
					4.009968831209121,
					0.2981355466897923,
					-1.4272748711364542,
					3.633428412120849,
					2.9339197182523815,
					-0.34806441580673586,
					4.9897665683866235,
					5.089459492437079,
					-4.86142364745257,
					4.550351715256168,
					2.4668735419716676,
					4.7317182649417,
					6.1033788500361235,
					5.469193597075507,
					1.8048067659807483,
					4.060503423578137,
					2.413810072109445,
					3.60410704972813,
					3.986682231612874,
					0.13693557619349028,
					-1.3781915098652437,
					3.6483686020206196,
					3.1206980866021103,
					-0.7307440512132553,
					5.079212808066859,
					5.116002112906672,
					-4.356896352721832,
					4.418488823238379
				],
				[
					-0.8340752710362221,
					1.1474379496503606,
					-4.2254402000941855,
					0.9017192144229338,
					-2.47175972009038,
					5.296673227331462,
					1.5669861917457995,
					2.208011374361513,
					1.7587626165188257,
					0.32497819420037133,
					4.524304500145633,
					1.1233365465925362,
					4.41578619623049,
					-0.38184562429479685,
					2.7436245470196567,
					1.1774828047232087,
					-0.36318910912801283,
					-0.3726696808189479,
					-0.9384164743639187,
					1.137073030285415,
					-3.1609584459898747,
					0.9421888576534337,
					-2.0688031455990763,
					5.60254799279421,
					1.5837925973984004,
					2.047342671412165,
					1.7470330991263219,
					0.9788452603109723,
					3.9434397527943803,
					0.961694296341276,
					4.39978035063276,
					0.04120564333708711,
					2.679224737811382,
					1.218377001616898,
					-0.08914385525038843,
					0.17388738576121698
				],
				[
					-0.1397903985142411,
					-0.3190186354721964,
					2.1080475172961384,
					2.8258755206089563,
					4.180428804836485,
					-3.0075733199093846,
					-0.24989363605455783,
					1.8307934634367502,
					1.6591642440405885,
					-1.8340741002541292,
					2.5377886209433815,
					0.489294348475791,
					4.374809966941626,
					5.770224264867605,
					-5.896451150220515,
					3.0471768353685658,
					-0.14743346196113113,
					0.4836670779950755,
					-0.13772216978374716,
					-0.35057530413163335,
					1.1614156627338843,
					2.7587513406536166,
					4.175190188649743,
					-3.2629840040780507,
					-0.29740809781324384,
					2.0083081609480544,
					1.6632871471128683,
					-1.889425163412799,
					3.17438307426742,
					0.7001871687488284,
					4.357085132591648,
					5.55611462734855,
					-5.731226023159998,
					2.9285342117451565,
					-0.025679615604612228,
					-0.9196604004130402
				],
				[
					-3.9332081680474076,
					2.2242382859355607,
					-3.59826467300276,
					3.737087991216726,
					-0.2398485964571791,
					-2.2731245968518814,
					1.381877594762621,
					3.9464433234474385,
					-0.32087148860788195,
					-1.4470957978912167,
					3.1450175142881083,
					2.0162070970329955,
					-2.9183695919222474,
					1.522086171467156,
					0.4864891180402549,
					-5.843423942984962,
					1.1028222144338273,
					3.117963530296559,
					-3.917752913641779,
					2.190084792707805,
					-3.3834371202197566,
					3.6915064314369106,
					0.015034115971085095,
					-2.018982680158863,
					1.4003549334289989,
					3.8003066857753534,
					-0.3156038111181466,
					-1.377130444126619,
					3.0551177727673897,
					2.072607509069043,
					-3.0017098110920126,
					1.7063170919505457,
					0.0733974634930318,
					-5.3914196275684,
					1.0675602593095876,
					3.134718786295817
				]
			]
		},
		{
			"nr_nodes": 9,
			"activation_function": {
				"type": "sigmoid",
				"alpha": 1
			},
			"input_weights": [
				[
					-4.997607431738897,
					3.584742685951017,
					1.794557493239406,
					-0.6166134276123741,
					5.448427535989703,
					0.5550396136239383,
					-0.7988846709042927,
					-0.7246841810151732,
					-1.0311208694978242
				],
				[
					-3.2405481445833715,
					0.7230318804805632,
					-0.5820745517496302,
					-1.7877402914681015,
					-3.703777663462602,
					4.522316061765478,
					-2.25843777384474,
					-0.5897848425588037,
					2.2721469231232545
				],
				[
					2.7745327018775505,
					0.442325623222446,
					0.8702586158872152,
					1.4826681502512211,
					4.651168366900408,
					0.47113293870099043,
					-5.94878185954376,
					1.725882261651785,
					-2.554865635167407
				],
				[
					-3.5467238139883035,
					-2.0189434969996127,
					1.1373059704650221,
					-1.1968181543628176,
					-1.9468325624840954,
					4.904349103783136,
					-0.8198601723218121,
					1.0191806217932864,
					5.555533895441368
				],
				[
					0.008917713404015627,
					-1.9534565110427045,
					2.4258962215413358,
					-1.2103512721945549,
					-2.377838172334581,
					-2.012679471029668,
					-3.3026511394125584,
					3.2383519043663638,
					0.4576910209535088
				],
				[
					3.9935927302593175,
					1.3213552709327971,
					-0.9402111418924936,
					-4.977228193085542,
					2.6142730503909175,
					-0.5328549368615303,
					1.6267268922185822,
					-0.7543488782219545,
					1.536990402767253
				],
				[
					1.2924681994561715,
					-0.8009481970709228,
					-2.459134639186204,
					0.9817602848628111,
					-3.411103664446157,
					1.9988086950162618,
					0.7816442406873125,
					-0.11465474851477273,
					-2.415285039255719
				],
				[
					-2.7755192451759036,
					1.401379527967805,
					-0.29688021466680875,
					2.1026363020202132,
					-2.3207714828050037,
					0.7781949763549653,
					0.059176397218530616,
					1.056479190068035,
					-0.7555771380893741
				],
				[
					4.510439959029714,
					1.0924352880271067,
					-1.5600006850242738,
					-3.010274868628302,
					-2.785632043234583,
					1.6504183726661088,
					-2.7706593997884386,
					-1.2270145562236878,
					1.8510313832561387
				],
				[
					5.274400225184174,
					-4.604400097864534,
					5.0626061238316815,
					-0.8583987002543736,
					0.23650192326656194,
					-1.3313155199868825,
					2.954838298027061,
					-2.062579460624741,
					-4.488308503459791
				],
				[
					-1.5050479934815226,
					-1.7942800501906744,
					1.046092795893173,
					1.1681234656809936,
					-9.558979613895445,
					-4.925061389536996,
					5.114343693470742,
					-0.03494026087604228,
					1.6986151912568277
				],
				[
					-2.47013353164048,
					-0.46428571028571813,
					5.4261073434738085,
					1.1544041915368086,
					-0.03308021309746441,
					-4.497476096097734,
					2.344707112309338,
					2.0213093361914787,
					2.424333490206991
				],
				[
					-3.976865021618635,
					0.8337911336582156,
					-3.080158195435881,
					4.3183512863934785,
					0.6278668561823156,
					-4.114953400542304,
					3.40683681722816,
					2.1461058615127473,
					-0.9445441347129544
				],
				[
					5.559871579936781,
					-1.9808094274624313,
					0.19750450771723166,
					-1.7059288549489509,
					1.7220351119582682,
					1.489339176669393,
					-0.8110861287099518,
					0.21365462985354647,
					-1.8995087839219238
				],
				[
					-0.8723211762355221,
					0.4654650503865644,
					0.3324658637719632,
					4.889077432611244,
					0.07977101942385194,
					1.9513233947263493,
					-0.1572210225807936,
					-6.977034466133855,
					0.24152318829036218
				],
				[
					-1.8520791667083452,
					0.37131946901790536,
					-0.9584299275201299,
					-3.331864219762264,
					0.5266104970907922,
					5.517828177767042,
					2.4645437871150695,
					1.8059118903654054,
					-6.349677055523328
				],
				[
					1.6025778637311188,
					5.077856705469324,
					-2.426302270216076,
					0.8463005752564772,
					-1.3843925853964718,
					-5.7180772827721755,
					-4.729301167458479,
					0.37683041293266045,
					1.8169687949489919
				],
				[
					-2.4767354745253907,
					-2.005080254877007,
					-5.8909650545302945,
					1.3375242748043104,
					6.933245876331448,
					2.494004477248626,
					0.6711887277839774,
					-0.5505259572339201,
					2.8398916618086463
				],
				[
					-1.9098762950272485,
					-0.8536229953070423,
					-5.198670631152551,
					0.7144835920874757,
					6.428698279200751,
					2.8440468175535702,
					0.16942386436163148,
					-1.1805972967475231,
					2.6833725812121587
				],
				[
					-5.668050736714153,
					2.7399889526190253,
					0.4141744006821445,
					0.07629712745663125,
					5.371349101170892,
					0.23696247015241162,
					-0.3476078461187525,
					-0.39184883791265607,
					-0.028988202012178124
				],
				[
					-2.836641896596608,
					0.09220480030947018,
					-0.11471250286682677,
					-2.216476117899416,
					-3.265644486796596,
					4.345118824103881,
					-2.42742811755805,
					0.005052396826897632,
					1.0966694098288168
				],
				[
					2.3130996168410576,
					0.6965708771960591,
					-0.05826096459624618,
					1.8223232597047685,
					4.088746007995933,
					0.6534953472656583,
					-5.731974148545217,
					1.132075442638437,
					-1.2788258444144294
				],
				[
					-3.1398816620411703,
					-2.7341478814665794,
					1.8858886119468734,
					-1.4139579714022525,
					-1.3844203660366252,
					4.446019726502406,
					-0.9618796394812565,
					1.573205459467474,
					4.167074625993392
				],
				[
					-0.11449062412726588,
					-0.44941723073085915,
					1.9406910758491682,
					-1.1879947825269983,
					-2.9386544639009498,
					-1.4341550224177908,
					-3.0710997748064717,
					2.6060201906114773,
					1.717311068810144
				],
				[
					3.639405205508141,
					0.08324200925659983,
					-1.4520487290438902,
					-4.591625921656002,
					2.5724930268797195,
					-0.788916437279454,
					1.6443119701426325,
					-0.7123539484858288,
					1.729530334281147
				],
				[
					1.3026524741346774,
					-0.7322758679266194,
					-2.0239921127439113,
					1.0003936275030518,
					-2.9880068477730206,
					1.834462952496526,
					0.8319333450188781,
					0.13113603780912106,
					-2.850245745269481
				],
				[
					-2.7613999827941846,
					1.3219492778785187,
					-0.7389883505339504,
					2.0499146768256824,
					-2.6412279317578085,
					0.9535486077885724,
					-0.007759260943750249,
					0.9154275641164312,
					-0.42127874530586057
				],
				[
					4.535857031030591,
					1.132684450517649,
					-0.9529850792663102,
					-2.9637110842366563,
					-2.2511925804112565,
					1.2726707330084672,
					-2.535613071883097,
					-0.6592252686153229,
					1.1070454776681706
				],
				[
					5.2613132992139136,
					-4.331178826243613,
					4.600717280538789,
					-0.8837998677211156,
					-0.2739605327286505,
					-0.9523257033355149,
					2.6547935032712537,
					-2.7406728528171924,
					-3.6992564023275842
				],
				[
					-1.5449273941186685,
					-1.7729922153618913,
					1.253903687271911,
					1.1352353575402032,
					-9.537475378335827,
					-4.936815248260411,
					5.135468217588721,
					-0.0820287731386256,
					1.6133737453595738
				],
				[
					-2.3711057874314108,
					-0.5199333307056423,
					5.27842789516435,
					0.8323504767601744,
					0.0806620417746117,
					-4.392179062436071,
					2.2527086694241043,
					2.5613376673604944,
					2.1415098534506343
				],
				[
					-3.3354558870116753,
					0.8931000033899088,
					-1.9370458390522503,
					3.950606788719823,
					0.9795830628211522,
					-3.8274894205981203,
					2.872278114198521,
					1.6220889359118644,
					-1.775342498755959
				],
				[
					4.8137931248276375,
					-1.6314530691339242,
					-0.5804955688327431,
					-1.0002666891130547,
					1.221760166084818,
					1.2183937434743115,
					-0.03819829752110162,
					0.0790444741986159,
					-0.7937083677038244
				],
				[
					-0.7941902624264352,
					-0.614182509455609,
					-0.4470607050140971,
					4.523966157347106,
					0.24532230788437437,
					1.8405013529371759,
					-0.3074511494373444,
					-5.9672736682619,
					-0.1379204841389885
				],
				[
					-1.9328717078985198,
					0.6439747626310789,
					-0.9645682434518028,
					-2.874752366161937,
					0.29458839286113897,
					5.425236544900459,
					2.5340235622178917,
					1.0119013656390967,
					-5.705264633331488
				],
				[
					1.656363945775602,
					4.990568702355546,
					-1.5151923226371842,
					0.7235774556433378,
					-0.7955887085076656,
					-5.689016345197046,
					-4.673470152593804,
					0.7395373358661624,
					0.9212429296684215
				]
			]
		}
	]
}