{"nr_inputs":9,"nr_outputs":9,"nr_layers":3,"layers":[{"nr_nodes":9,"activation_function":{"type":"sigmoid","alpha":1},"input_weights":[[-1.0999802624134791,2.827222529829962,0.06701187637450044,0.46176232488449115,3.5419558067932306,0.781736978136958,-1.025212444906392,-2.1996561649299746,-3.586609241595302],[-1.8991665752237834,1.172684846441398,0.23711098897123742,0.7821338895544692,-3.2139687473801217,0.7830501163963511,0.9315199972051279,-1.1153580080995362,2.034656572482112],[-0.509948341570882,1.0272723785125093,0.8627074634369957,0.003106941479043639,3.947270838128557,0.534073074685368,-2.8651971493013297,-0.02863690908636635,-3.173163680539379],[-1.5964959309500473,-1.7832321022539837,0.9934562133063264,0.7564897557881097,-3.5785753811246788,0.8530756650322923,-0.20586241594297539,0.13285677896705744,2.4531000819554523],[1.2897953286836839,-4.272813837900138,0.7323147146985611,0.14376628614927853,-0.4116209735336357,0.4574395307692639,-2.7752774979530495,4.229814592671875,1.5978697137495446],[-0.09164983604989241,-0.1602141866966262,0.6616060655143794,-0.009546497618741745,-0.0194964577571225,0.5709021128326918,0.1727411568337373,-0.30252130032878527,-0.2959507697596156],[1.8273219233964624,0.9609715646817136,-1.1320926064527232,0.7751957585179783,-1.5456518155602843,0.6519316978659033,2.001417563038097,-0.8120301097522112,-0.9558380279727587],[-0.1780335212866905,0.11012973864161618,-0.1325902603055691,0.8289999265540778,-0.2400434295308506,0.2754169506564946,-0.5086287005631941,-0.4121877384035698,0.25813517804640623],[2.0832432062019626,0.35840223093841583,-0.39120435639233075,-0.13481161933564234,-0.9829471932804267,0.8530633648763895,1.7348968558685518,-0.20727901993156883,-0.3580625994168435]]},{"nr_nodes":9,"activation_function":{"type":"sigmoid","alpha":1},"input_weights":[[-1.2023037235973277,-0.3564858328605537,0.03417067656467293,-1.4730191892990785,1.3983415387744857,1.4869895868666134,-0.35485959955975915,-2.630175101208124,2.589210018133614],[2.973537251036009,-0.06988658837053617,0.42168870091776084,-0.5274780616026327,-6.164572451193543,0.2909884015136967,3.050514639758877,-0.5840029570636196,0.9887870495545286],[-0.9729491892709438,-0.3946147155569981,0.4693202548389476,1.128671782959291,0.6055658392153807,-1.056449409125141,-0.3011890632657473,0.4185175142990916,-0.6902411939412547],[-0.5741470395316918,0.013939413646241853,0.2767145902099037,0.8362818188289937,-0.03659903276031667,-0.9962749413545704,0.8595741401879401,-0.37173874107354427,0.2548940200051791],[4.602253032565942,-4.9563776147144925,4.910410123276317,-1.6556669964744717,-0.380992814512392,1.7577536506185307,-4.597665912493336,1.8990477259022538,-2.106192100891345],[-0.5099218069785594,-0.4903649123908629,-0.10217929457156134,0.8653294046195055,0.20162626641291295,-0.6468654925435637,0.6167488751068722,-0.37754334583277765,0.5183645147682845],[-0.5856398676717186,1.503138462603116,-1.2985135827881067,-0.6795080003265813,-1.9069607232064685,0.8020407689852203,2.225052179065582,-2.792346232436863,2.505274114207812],[-1.6925769661143042,-1.1707619733986674,1.5837250114622836,0.03352602955516961,5.071179476997238,-0.2746715090513259,-2.884795341026806,0.7383351152497701,-0.32905728581611926],[-3.3972859363310706,2.122874219317932,-2.104215639931186,3.731633284322726,2.310718660999368,-3.658998662077986,1.72557713273765,1.4954022548501735,-1.6445360592038667]]}]}